       33.977138      -118.98657     -0.45935345
       33.976280      -118.98680     -0.45095587
       33.975422      -118.98703     -0.46775103
       33.974564      -118.98727     -0.46775103
       33.973706      -118.98750     -0.45935345
       33.972848      -118.98774     -0.46775103
       33.971990      -118.98797     -0.46775103
       33.971132      -118.98820     -0.46810913
       33.970274      -118.98844     -0.46810913
       33.969416      -118.98867     -0.47650671
       33.968558      -118.98890     -0.46810913
       33.967699      -118.98914     -0.46810913
       33.966841      -118.98937     -0.45971155
       33.965984      -118.98960     -0.47650671
       33.965126      -118.98984     -0.45971155
       33.964269      -118.99007     -0.47650671
       33.963411      -118.99030     -0.47650671
       33.962552      -118.99054     -0.46810913
       33.961694      -118.99077     -0.46267557
       33.960836      -118.99100     -0.47107363
       33.959979      -118.99124     -0.45261145
       33.959121      -118.99147     -0.43581581
       33.958263      -118.99170     -0.43581581
       33.957405      -118.99193     -0.43581581
       33.956546      -118.99217     -0.43581581
       33.955688      -118.99240     -0.44421339
       33.954831      -118.99263     -0.43581581
       33.953973      -118.99287     -0.44421339
       33.953115      -118.99310     -0.41546822
       33.952256      -118.99333     -0.43226385
       33.951398      -118.99357     -0.43226385
       33.950540      -118.99380     -0.43226385
       33.949682      -118.99403     -0.42386580
       33.948824      -118.99427     -0.42386580
       33.947966      -118.99450     -0.41546822
       33.947108      -118.99474     -0.41546822
       33.946249      -118.99497     -0.40707064
       33.945391      -118.99520     -0.42386580
       33.944533      -118.99544     -0.44905901
       33.943675      -118.99567     -0.44304132
       33.942817      -118.99590     -0.44304132
       33.941959      -118.99613     -0.42624617
       33.941101      -118.99637     -0.45143890
       33.940243      -118.99660     -0.45143890
       33.939384      -118.99683     -0.43464375
       33.938527      -118.99707     -0.43464375
       33.937669      -118.99730     -0.44304132
       33.936811      -118.99754     -0.45143890
       33.935953      -118.99777     -0.44304132
       33.935095      -118.99800     -0.44912434
       33.934236      -118.99824     -0.44072676
       33.933379      -118.99847     -0.43232918
       33.932521      -118.99870     -0.43232918
       33.931663      -118.99894     -0.44912434
       33.930805      -118.99917     -0.44912434
       33.929946      -118.99940     -0.44912434
       33.929088      -118.99964     -0.44912434
       33.928230      -118.99987     -0.44072676
       33.927372      -119.00010     -0.44072676
       33.926513      -119.00034     -0.44912434
       33.925656      -119.00057     -0.42584419
       33.924798      -119.00080     -0.42584419
       33.923940      -119.00104     -0.41744661
       33.923081      -119.00127     -0.42584419
       33.922223      -119.00150     -0.42584419
       33.921366      -119.00174     -0.42584419
       33.920508      -119.00197     -0.42584419
       33.919650      -119.00220     -0.43145990
       33.918792      -119.00244     -0.43145990
       33.917935      -119.00267     -0.43145990
       33.917077      -119.00290     -0.43557167
       33.916218      -119.00314     -0.44396925
       33.915361      -119.00337     -0.43557167
       33.914503      -119.00360     -0.44396925
       33.913646      -119.00384     -0.45236683
       33.912788      -119.00407     -0.43557167
       33.911930      -119.00430     -0.43557167
       33.911071      -119.00454     -0.44396925
       33.910213      -119.00477     -0.44396925
       33.909356      -119.00500     -0.43557167
       33.908497      -119.00524     -0.43557167
       33.907640      -119.00547     -0.43133783
       33.906782      -119.00570     -0.43973541
       33.905925      -119.00594     -0.43973541
       33.905066      -119.00617     -0.43973541
       33.904209      -119.00640     -0.43133783
       33.903351      -119.00664     -0.43973541
       33.902493      -119.00687     -0.44813299
       33.901635      -119.00710     -0.43973541
       33.900777      -119.00734     -0.43973541
       33.899920      -119.00757     -0.44813299
       33.899062      -119.00780     -0.42450380
       33.898204      -119.00804     -0.41610622
       33.897346      -119.00827     -0.42450380
       33.896488      -119.00850     -0.39931059
       33.895630      -119.00874     -0.41610622
       33.894772      -119.00897     -0.41610622
       33.893914      -119.00920     -0.42450380
       33.893055      -119.00944     -0.39931059
       33.892197      -119.00967     -0.40770864
       33.891340      -119.00990     -0.39931059
       33.890481      -119.01014     -0.40770864
       33.889624      -119.01037     -0.41229200
       33.888766      -119.01060     -0.42908764
       33.887908      -119.01084     -0.42908764
       33.887050      -119.01107     -0.42908764
       33.886192      -119.01130     -0.42069006
       33.885333      -119.01154     -0.42908764
       33.884475      -119.01177     -0.42069006
       33.883617      -119.01200     -0.42908764
       33.882759      -119.01224     -0.42908764
       33.881901      -119.01247     -0.42069006
       33.881043      -119.01270     -0.42022562
       33.880185      -119.01293     -0.41466475
       33.879326      -119.01317     -0.42306232
       33.878469      -119.01340     -0.42306232
       33.877610      -119.01363     -0.42306232
       33.876752      -119.01387     -0.40626669
       33.875894      -119.01410     -0.40626669
       33.875036      -119.01434     -0.41466475
       33.874177      -119.01457     -0.40626669
       33.873319      -119.01480     -0.41466475
       33.872461      -119.01503     -0.42306232
       33.871603      -119.01527     -0.42717409
       33.870745      -119.01550     -0.43557167
       33.869888      -119.01574     -0.42717409
       33.869030      -119.01597     -0.42717409
       33.868171      -119.01620     -0.42717409
       33.867312      -119.01644     -0.41037846
       33.866455      -119.01667     -0.41037846
       33.865597      -119.01690     -0.41877604
       33.864739      -119.01713     -0.41877604
       33.863881      -119.01737     -0.42717409
       33.863022      -119.01760     -0.41321611
       33.862164      -119.01783     -0.41321611
       33.861307      -119.01807     -0.41321611
       33.860448      -119.01830     -0.41321611
       33.859590      -119.01853     -0.42161417
       33.858733      -119.01877     -0.42161417
       33.857875      -119.01900     -0.41321611
       33.857017      -119.01923     -0.41321611
       33.856158      -119.01947     -0.40481853
       33.855301      -119.01970     -0.41321611
       33.854443      -119.01993     -0.40481853
       33.853585      -119.02017     -0.37277365
       33.852727      -119.02040     -0.38956881
       33.851869      -119.02063     -0.38956881
       33.851010      -119.02087     -0.38956881
       33.850152      -119.02110     -0.38956881
       33.849294      -119.02133     -0.39796686
       33.848436      -119.02157     -0.38956881
       33.847578      -119.02180     -0.41476202
       33.846719      -119.02203     -0.40636444
       33.845861      -119.02227     -0.43155718
       33.845004      -119.02250     -0.41721153
       33.844145      -119.02273     -0.41721153
       33.843287      -119.02297     -0.40881348
       33.842429      -119.02320     -0.39201832
       33.841572      -119.02343     -0.40881348
       33.840714      -119.02367     -0.40881348
       33.839856      -119.02390     -0.40836620
       33.838997      -119.02413     -0.39996815
       33.838139      -119.02436     -0.39996815
       33.837281      -119.02460     -0.40836620
       33.836422      -119.02483     -0.40836620
       33.835564      -119.02506     -0.37525702
       33.834706      -119.02530     -0.38365459
       33.833848      -119.02553     -0.40045023
       33.832990      -119.02576     -0.39205265
       33.832132      -119.02600     -0.40045023
       33.831274      -119.02623     -0.40045023
       33.830415      -119.02646     -0.39205265
       33.829557      -119.02670     -0.39205265
       33.828699      -119.02693     -0.40045023
       33.827841      -119.02716     -0.39205265
       33.826983      -119.02740     -0.38365459
       33.826125      -119.02763     -0.38365459
       33.825267      -119.02786     -0.38365459
       33.824408      -119.02810     -0.39205217
       33.823550      -119.02833     -0.38365459
       33.822692      -119.02856     -0.37525654
       33.821833      -119.02879     -0.38365459
       33.820976      -119.02903     -0.38365459
       33.820118      -119.02926     -0.38365459
       33.819261      -119.02949     -0.39205217
       33.818402      -119.02973     -0.38365459
       33.817544      -119.02996     -0.39485216
       33.816686      -119.03019     -0.39485216
       33.815828      -119.03042     -0.37805653
       33.814970      -119.03066     -0.38645458
       33.814112      -119.03089     -0.39485216
       33.813254      -119.03112     -0.37805653
       33.812396      -119.03136     -0.38645458
       33.811538      -119.03159     -0.37805653
       33.810680      -119.03182     -0.39485216
       33.809822      -119.03205     -0.39485216
       33.808964      -119.03229     -0.39998341
       33.808106      -119.03252     -0.39158583
       33.807248      -119.03275     -0.39158583
       33.806389      -119.03299     -0.38318825
       33.805531      -119.03322     -0.39158583
       33.804673      -119.03345     -0.39158583
       33.803815      -119.03368     -0.39158583
       33.802958      -119.03392     -0.39998341
       33.802099      -119.03415     -0.39158583
       33.801240      -119.03438     -0.39158583
       33.800383      -119.03461     -0.38456917
       33.799525      -119.03485     -0.37849140
       33.798667      -119.03508     -0.37849140
       33.797809      -119.03531     -0.37009382
       33.796951      -119.03554     -0.37849140
       33.796092      -119.03578     -0.37849140
       33.795234      -119.03601     -0.37849140
       33.794376      -119.03624     -0.37009382
       33.793518      -119.03648     -0.37849140
       33.792659      -119.03671     -0.38688898
       33.791801      -119.03694     -0.37009382
       33.790943      -119.03717     -0.38503742
       33.790085      -119.03741     -0.38503742
       33.789227      -119.03764     -0.38503742
       33.788369      -119.03787     -0.39343500
       33.787511      -119.03811     -0.38503742
       33.786653      -119.03834     -0.38503742
       33.785794      -119.03857     -0.38503742
       33.784937      -119.03880     -0.39343500
       33.784079      -119.03904     -0.39343500
       33.783220      -119.03927     -0.39343500
       33.782362      -119.03950     -0.37663984
       33.781504      -119.03973     -0.38967323
       33.780645      -119.03997     -0.37287807
       33.779787      -119.04020     -0.38127565
       33.778930      -119.04043     -0.38127565
       33.778071      -119.04066     -0.37287807
       33.777212      -119.04090     -0.37287807
       33.776355      -119.04113     -0.38967323
       33.775497      -119.04136     -0.35608292
       33.774639      -119.04160     -0.37287807
       33.773781      -119.04183     -0.36448050
       33.772923      -119.04206     -0.37053967
       33.772065      -119.04229     -0.37053967
       33.771206      -119.04253     -0.37053967
       33.770347      -119.04276     -0.37893724
       33.769490      -119.04299     -0.37053967
       33.768632      -119.04322     -0.37053967
       33.767775      -119.04346     -0.36214209
       33.766916      -119.04369     -0.37053967
       33.766058      -119.04392     -0.37053967
       33.765199      -119.04415     -0.37893724
       33.764342      -119.04439     -0.37893724
       33.763484      -119.04462     -0.38127565
       33.762625      -119.04485     -0.37287807
       33.761767      -119.04508     -0.38127565
       33.760909      -119.04532     -0.37287807
       33.760051      -119.04555     -0.37102842
       33.759193      -119.04578     -0.37942600
       33.758335      -119.04601     -0.38782358
       33.757477      -119.04625     -0.37102842
       33.756619      -119.04648     -0.37102842
       33.755761      -119.04671     -0.37942600
       33.754903      -119.04694     -0.38503742
       33.754045      -119.04718     -0.36824226
       33.753187      -119.04741     -0.36824226
       33.752328      -119.04764     -0.38503742
       33.751470      -119.04787     -0.37663984
       33.750612      -119.04811     -0.37663984
       33.749754      -119.04834     -0.37663984
       33.748896      -119.04857     -0.37663984
       33.748037      -119.04881     -0.37663984
       33.747179      -119.04904     -0.38503742
       33.746321      -119.04927     -0.37663984
       33.745463      -119.04950     -0.36917686
       33.744604      -119.04973     -0.38597202
       33.743746      -119.04997     -0.38597202
       33.742889      -119.05020     -0.37757444
       33.742031      -119.05043     -0.36917686
       33.741172      -119.05066     -0.38597202
       33.740314      -119.05090     -0.36917686
       33.739456      -119.05113     -0.36917686
       33.738598      -119.05136     -0.36917686
       33.737739      -119.05159     -0.37757444
       33.736881      -119.05183     -0.37523794
       33.736023      -119.05206     -0.37523794
       33.735164      -119.05229     -0.36684036
       33.734306      -119.05252     -0.35004473
       33.733448      -119.05276     -0.36684036
       33.732590      -119.05299     -0.36684036
       33.731732      -119.05322     -0.36684036
       33.730874      -119.05345     -0.35844231
       33.730016      -119.05369     -0.37523794
       33.729158      -119.05392     -0.35844231
       33.728300      -119.05415     -0.35844231
       33.727441      -119.05438     -0.37945652
       33.726582      -119.05462     -0.37945652
       33.725725      -119.05485     -0.37945652
       33.724866      -119.05508     -0.38785458
       33.724008      -119.05531     -0.37105894
       33.723149      -119.05554     -0.37945652
       33.722291      -119.05578     -0.36266136
       33.721433      -119.05601     -0.37105894
       33.720575      -119.05624     -0.36825657
       33.719716      -119.05647     -0.37665415
       33.718858      -119.05671     -0.37852144
       33.718000      -119.05694     -0.37852144
       33.717142      -119.05717     -0.37852144
       33.716284      -119.05740     -0.37852144
       33.715426      -119.05763     -0.37012386
       33.714567      -119.05787     -0.37852144
       33.713709      -119.05810     -0.37852144
       33.712852      -119.05833     -0.37852144
       33.711994      -119.05856     -0.37852144
       33.711135      -119.05880     -0.37852144
       33.710277      -119.05903     -0.36172628
       33.709418      -119.05926     -0.37712240
       33.708560      -119.05949     -0.35192966
       33.707702      -119.05973     -0.36872482
       33.706844      -119.05996     -0.36032724
       33.705986      -119.06019     -0.36872482
       33.705128      -119.06042     -0.36032724
       33.704269      -119.06065     -0.36872482
       33.703411      -119.06089     -0.36872482
       33.702552      -119.06112     -0.36032724
       33.701695      -119.06135     -0.36872482
       33.700837      -119.06158     -0.36965752
       33.699979      -119.06181     -0.36125994
       33.699120      -119.06205     -0.36125994
       33.698262      -119.06228     -0.36125994
       33.697404      -119.06251     -0.35286236
       33.696546      -119.06274     -0.35286236
       33.695689      -119.06297     -0.35286236
       33.694831      -119.06321     -0.34446478
       33.693973      -119.06344     -0.36125994
       33.693114      -119.06367     -0.35286236
       33.692256      -119.06390     -0.34446478
       33.691398      -119.06414     -0.36637783
       33.690540      -119.06437     -0.36637783
       33.689681      -119.06460     -0.36637783
       33.688824      -119.06483     -0.37477541
       33.687966      -119.06506     -0.37477541
       33.687107      -119.06530     -0.38317299
       33.686249      -119.06553     -0.38317299
       33.685392      -119.06576     -0.38317299
       33.684534      -119.06599     -0.36637783
       33.683675      -119.06622     -0.37477541
       33.682817      -119.06646     -0.37056828
       33.681959      -119.06669     -0.38736343
       33.681102      -119.06692     -0.37896585
       33.680243      -119.06715     -0.38129473
       33.679385      -119.06739     -0.38129473
       33.678527      -119.06762     -0.37289715
       33.677669      -119.06785     -0.38129473
       33.676811      -119.06808     -0.38129473
       33.675952      -119.06831     -0.38129473
       33.675094      -119.06855     -0.38969231
       33.674237      -119.06878     -0.38129473
       33.673379      -119.06901     -0.37012386
       33.672520      -119.06924     -0.36172628
       33.671662      -119.06948     -0.36172628
       33.670804      -119.06971     -0.37012386
       33.669945      -119.06994     -0.35332870
       33.669087      -119.07017     -0.36172628
       33.668230      -119.07040     -0.37012386
       33.667371      -119.07064     -0.36172628
       33.666513      -119.07087     -0.34493113
       33.665656      -119.07110     -0.37012386
       33.664798      -119.07133     -0.34912825
       33.663940      -119.07156     -0.34073067
       33.663082      -119.07180     -0.34912825
       33.662224      -119.07203     -0.34073067
       33.661365      -119.07226     -0.34073067
       33.660507      -119.07249     -0.34912825
       33.659649      -119.07272     -0.34073067
       33.658790      -119.07296     -0.35752583
       33.657932      -119.07319     -0.35752583
       33.657073      -119.07342     -0.35752583
       33.656215      -119.07365     -0.34912825
       33.655357      -119.07389     -0.34026575
       33.654499      -119.07412     -0.34866333
       33.653640      -119.07435     -0.35706091
       33.652783      -119.07458     -0.36545849
       33.651925      -119.07481     -0.36545849
       33.651066      -119.07505     -0.35706091
       33.650209      -119.07528     -0.34026575
       33.649351      -119.07551     -0.35706091
       33.648492      -119.07574     -0.34866333
       33.647634      -119.07597     -0.34866333
       33.646776      -119.07621     -0.35565948
       33.645918      -119.07644     -0.34726191
       33.645061      -119.07667     -0.35565948
       33.644203      -119.07690     -0.36405706
       33.643345      -119.07714     -0.37245464
       33.642486      -119.07737     -0.37245464
       33.641628      -119.07760     -0.38085222
       33.640770      -119.07783     -0.35752583
       33.639912      -119.07806     -0.35752583
       33.639055      -119.07830     -0.34912825
       33.638196      -119.07853     -0.34073067
       33.637338      -119.07876     -0.35986042
       33.636481      -119.07899     -0.35146284
       33.635623      -119.07922     -0.35986042
       33.634764      -119.07946     -0.35146284
       33.633906      -119.07969     -0.35986042
       33.633049      -119.07992     -0.37665558
       33.632190      -119.08015     -0.35986042
       33.631332      -119.08038     -0.35986042
       33.630474      -119.08062     -0.35986042
       33.629616      -119.08085     -0.35986042
       33.628759      -119.08108     -0.36265707
       33.627901      -119.08131     -0.36265707
       33.627043      -119.08155     -0.37105465
       33.626185      -119.08178     -0.36265707
       33.625327      -119.08201     -0.37105465
       33.624469      -119.08224     -0.37105465
       33.623610      -119.08247     -0.37105465
       33.622753      -119.08271     -0.36265707
       33.621896      -119.08294     -0.35425949
       33.621037      -119.08317     -0.35425949
       33.620179      -119.08340     -0.37945271
       33.619321      -119.08363     -0.37012529
       33.618463      -119.08387     -0.37012529
       33.617605      -119.08410     -0.37852287
       33.616747      -119.08433     -0.37852287
       33.615889      -119.08456     -0.37012529
       33.615031      -119.08479     -0.37852287
       33.614173      -119.08503     -0.37012529
       33.613315      -119.08526     -0.36172771
       33.612457      -119.08549     -0.37852287
       33.611598      -119.08573     -0.37012529
       33.610740      -119.08596     -0.37852287
       33.609882      -119.08619     -0.35471869
       33.609024      -119.08642     -0.36311626
       33.608166      -119.08665     -0.35471869
       33.607308      -119.08688     -0.36311626
       33.606450      -119.08712     -0.36311626
       33.605591      -119.08735     -0.35471869
       33.604733      -119.08758     -0.36311626
       33.603875      -119.08781     -0.36311626
       33.603017      -119.08804     -0.37151432
       33.602159      -119.08828     -0.36311626
       33.601301      -119.08851     -0.37945271
       33.600444      -119.08874     -0.37758541
       33.599585      -119.08897     -0.36918736
       33.598726      -119.08921     -0.36918736
       33.597867      -119.08944     -0.36918736
       33.597009      -119.08967     -0.36078978
       33.596152      -119.08990     -0.36078978
       33.595294      -119.09013     -0.36078978
       33.594436      -119.09037     -0.36918736
       33.593578      -119.09060     -0.36078978
       33.592721      -119.09083     -0.36918736
       33.591862      -119.09106     -0.35705137
       33.591003      -119.09129     -0.38224459
       33.590146      -119.09153     -0.36544895
       33.589288      -119.09176     -0.35705137
       33.588430      -119.09199     -0.36544895
       33.587572      -119.09222     -0.36544895
       33.586714      -119.09245     -0.36544895
       33.585856      -119.09269     -0.37384701
       33.584998      -119.09292     -0.37384701
       33.584140      -119.09315     -0.36544895
       33.583282      -119.09338     -0.36775541
       33.582424      -119.09361     -0.35935783
       33.581567      -119.09385     -0.35935783
       33.580709      -119.09408     -0.35095978
       33.579852      -119.09431     -0.34256220
       33.578994      -119.09454     -0.34256220
       33.578136      -119.09478     -0.33416462
       33.577277      -119.09501     -0.35095978
       33.576420      -119.09524     -0.35935783
       33.575562      -119.09547     -0.36775541
       33.574705      -119.09570     -0.34256220
       33.573847      -119.09594     -0.35144663
       33.572989      -119.09617     -0.35144663
       33.572131      -119.09640     -0.34304905
       33.571274      -119.09663     -0.35144663
       33.570416      -119.09686     -0.35984421
       33.569558      -119.09710     -0.35144663
       33.568700      -119.09733     -0.34304905
       33.567842      -119.09756     -0.34304905
       33.566985      -119.09779     -0.35144663
       33.566126      -119.09803     -0.35144663
       33.565268      -119.09826     -0.34632111
       33.564410      -119.09849     -0.35471869
       33.563553      -119.09872     -0.34632111
       33.562694      -119.09895     -0.34632111
       33.561836      -119.09919     -0.35471869
       33.560977      -119.09942     -0.36311626
       33.560120      -119.09965     -0.34678745
       33.559262      -119.09988     -0.34678745
       33.558405      -119.10011     -0.34678745
       33.557546      -119.10035     -0.34678745
       33.556688      -119.10058     -0.34678745
       33.555831      -119.10081     -0.36732626
       33.554972      -119.10104     -0.35892868
       33.554114      -119.10127     -0.35892868
       33.553256      -119.10151     -0.35892868
       33.552398      -119.10174     -0.36732626
       33.551540      -119.10197     -0.37572384
       33.550682      -119.10220     -0.35892868
       33.549824      -119.10244     -0.36732626
       33.548966      -119.10267     -0.35892868
       33.548108      -119.10290     -0.35892868
       33.547250      -119.10313     -0.36872435
       33.546391      -119.10336     -0.36032677
       33.545533      -119.10359     -0.36032677
       33.544675      -119.10383     -0.36032677
       33.543817      -119.10406     -0.36032677
       33.542959      -119.10429     -0.36032677
       33.542102      -119.10452     -0.36032677
       33.541244      -119.10475     -0.35192919
       33.540385      -119.10499     -0.36032677
       33.539527      -119.10522     -0.36032677
       33.538669      -119.10545     -0.35192919
       33.537811      -119.10568     -0.34539270
       33.536954      -119.10591     -0.33699512
       33.536096      -119.10615     -0.35379028
       33.535238      -119.10638     -0.34539270
       33.534380      -119.10661     -0.34539270
       33.533522      -119.10684     -0.33699512
       33.532664      -119.10707     -0.36218786
       33.531806      -119.10731     -0.34539270
       33.530948      -119.10754     -0.34539270
       33.530090      -119.10777     -0.35379028
       33.529233      -119.10800     -0.34632111
       33.528375      -119.10823     -0.35471869
       33.527517      -119.10846     -0.35471869
       33.526659      -119.10870     -0.34632111
       33.525801      -119.10893     -0.35471869
       33.524944      -119.10916     -0.34632111
       33.524086      -119.10939     -0.35471869
       33.523228      -119.10962     -0.36311626
       33.522370      -119.10986     -0.34632111
       33.521513      -119.11009     -0.35471869
       33.520655      -119.11032     -0.33369732
       33.519797      -119.11055     -0.33835459
       33.518939      -119.11078     -0.32995701
       33.518081      -119.11102     -0.32995701
       33.517223      -119.11125     -0.32155943
       33.516364      -119.11148     -0.33835459
       33.515507      -119.11171     -0.33835459
       33.514649      -119.11194     -0.33835459
       33.513791      -119.11217     -0.32995701
       33.512933      -119.11241     -0.33835459
       33.512075      -119.11264     -0.32995701
       33.511217      -119.11287     -0.33369732
       33.510358      -119.11310     -0.33369732
       33.509500      -119.11333     -0.33369732
       33.508642      -119.11357     -0.34209490
       33.507784      -119.11380     -0.34209490
       33.506925      -119.11403     -0.34209490
       33.506068      -119.11426     -0.33369732
       33.505209      -119.11449     -0.34209490
       33.504351      -119.11473     -0.33369732
       33.503493      -119.11496     -0.34209490
       33.502635      -119.11519     -0.33369732
       33.501776      -119.11542     -0.34349966
       33.500918      -119.11565     -0.34349966
       33.500060      -119.11588     -0.33510208
       33.499202      -119.11612     -0.33510208
       33.498344      -119.11635     -0.32670450
       33.497485      -119.11658     -0.34349966
       33.496628      -119.11681     -0.32670450
       33.495770      -119.11704     -0.32670450
       33.494911      -119.11728     -0.33510208
       33.494053      -119.11751     -0.33510208
       33.493195      -119.11774     -0.33322906
       33.492337      -119.11797     -0.33322906
       33.491479      -119.11820     -0.34162664
       33.490620      -119.11843     -0.34162664
       33.489762      -119.11866     -0.34162664
       33.488904      -119.11889     -0.35002422
       33.488046      -119.11913     -0.33322906
       33.487187      -119.11936     -0.35002422
       33.486329      -119.11959     -0.34162664
       33.485471      -119.11982     -0.32483149
       33.484613      -119.12005     -0.33322906
       33.483755      -119.12029     -0.33042240
       33.482898      -119.12052     -0.33042240
       33.482039      -119.12075     -0.33881998
       33.481180      -119.12098     -0.33881998
       33.480322      -119.12121     -0.31825447
       33.479464      -119.12144     -0.32665205
       33.478607      -119.12167     -0.33504963
       33.477749      -119.12191     -0.33504963
       33.476890      -119.12214     -0.32665205
       33.476033      -119.12237     -0.32665205
       33.475175      -119.12260     -0.34069300
       33.474317      -119.12283     -0.34909058
       33.473458      -119.12306     -0.34909058
       33.472601      -119.12330     -0.34909058
       33.471743      -119.12353     -0.34069300
       33.470884      -119.12376     -0.34069300
       33.470027      -119.12399     -0.34069300
       33.469168      -119.12422     -0.33229542
       33.468310      -119.12445     -0.34069300
       33.467452      -119.12468     -0.34909058
       33.466594      -119.12491     -0.34909058
       33.465736      -119.12515     -0.32857180
       33.464878      -119.12538     -0.33696938
       33.464021      -119.12561     -0.34536695
       33.463162      -119.12584     -0.35376453
       33.462304      -119.12607     -0.34536695
       33.461446      -119.12630     -0.34536695
       33.460588      -119.12654     -0.34536695
       33.459730      -119.12677     -0.33696938
       33.458872      -119.12700     -0.34536695
       33.458014      -119.12723     -0.33696938
       33.457156      -119.12746     -0.34490061
       33.456298      -119.12769     -0.34490061
       33.455441      -119.12792     -0.33650303
       33.454583      -119.12815     -0.33650303
       33.453724      -119.12839     -0.33650303
       33.452866      -119.12862     -0.35329819
       33.452007      -119.12885     -0.31970787
       33.451149      -119.12908     -0.33650303
       33.450292      -119.12931     -0.33650303
       33.449433      -119.12954     -0.33650303
       33.448575      -119.12978     -0.34490061
       33.447717      -119.13001     -0.33651781
       33.446858      -119.13024     -0.32812023
       33.446000      -119.13047     -0.34491539
       33.445142      -119.13070     -0.32812023
       33.444284      -119.13093     -0.33651781
       33.443426      -119.13116     -0.33651781
       33.442568      -119.13139     -0.33651781
       33.441710      -119.13163     -0.32812023
       33.440852      -119.13186     -0.33651781
       33.439993      -119.13209     -0.34166002
       33.439135      -119.13232     -0.35098934
       33.438276      -119.13255     -0.35938692
       33.437417      -119.13278     -0.34259176
       33.436559      -119.13301     -0.35098934
       33.435701      -119.13324     -0.34259176
       33.434844      -119.13347     -0.35938692
       33.433985      -119.13371     -0.33419418
       33.433127      -119.13394     -0.33419418
       33.432269      -119.13417     -0.34259176
       33.431411      -119.13440     -0.33419418
       33.430553      -119.13463     -0.34259176
       33.429694      -119.13486     -0.32950926
       33.428837      -119.13509     -0.33790684
       33.427978      -119.13533     -0.32950926
       33.427120      -119.13556     -0.33790684
       33.426262      -119.13579     -0.32950926
       33.425403      -119.13602     -0.32111168
       33.424546      -119.13625     -0.33790684
       33.423688      -119.13648     -0.32950926
       33.422829      -119.13671     -0.33790684
       33.421970      -119.13694     -0.33790684
       33.421112      -119.13718     -0.31081963
       33.420254      -119.13741     -0.32761478
       33.419396      -119.13764     -0.32761478
       33.418539      -119.13787     -0.32761478
       33.417681      -119.13810     -0.31921721
       33.416823      -119.13833     -0.32761478
       33.415964      -119.13856     -0.32761478
       33.415106      -119.13880     -0.31921721
       33.414248      -119.13903     -0.32761478
       33.413390      -119.13926     -0.31081963
       33.412532      -119.13949     -0.32761478
       33.411674      -119.13972     -0.32950926
       33.410816      -119.13995     -0.33790684
       33.409958      -119.14018     -0.33790684
       33.409100      -119.14041     -0.32950926
       33.408242      -119.14065     -0.32950926
       33.407384      -119.14088     -0.32111168
       33.406526      -119.14111     -0.32950926
       33.405668      -119.14134     -0.33790684
       33.404810      -119.14157     -0.33790684
       33.403951      -119.14180     -0.33790684
       33.403093      -119.14203     -0.33792353
       33.402235      -119.14226     -0.32952595
       33.401377      -119.14250     -0.33792353
       33.400519      -119.14273     -0.34119177
       33.399661      -119.14296     -0.33279419
       33.398802      -119.14319     -0.34958935
       33.397945      -119.14342     -0.34119177
       33.397087      -119.14365     -0.33279419
       33.396229      -119.14388     -0.34119177
       33.395370      -119.14412     -0.33279419
       33.394512      -119.14435     -0.34119177
       33.393654      -119.14458     -0.35192919
       33.392797      -119.14481     -0.36032677
       33.391938      -119.14504     -0.35192919
       33.391080      -119.14527     -0.34353161
       33.390222      -119.14550     -0.33513403
       33.389364      -119.14574     -0.35192919
       33.388506      -119.14597     -0.35192919
       33.387648      -119.14620     -0.35192919
       33.386789      -119.14643     -0.36032677
       33.385931      -119.14666     -0.35192919
       33.385073      -119.14689     -0.35099792
       33.384215      -119.14712     -0.35099792
       33.383357      -119.14735     -0.35939550
       33.382499      -119.14759     -0.35939550
       33.381641      -119.14782     -0.33420229
       33.380783      -119.14805     -0.35099792
       33.379925      -119.14828     -0.34260035
       33.379066      -119.14851     -0.35099792
       33.378208      -119.14874     -0.35099792
       33.377350      -119.14897     -0.35939550
       33.376492      -119.14921     -0.34260035
       33.375633      -119.14944     -0.35286236
       33.374774      -119.14967     -0.34446478
       33.373916      -119.14990     -0.35286236
       33.373059      -119.15013     -0.35286236
       33.372200      -119.15036     -0.35286236
       33.371341      -119.15059     -0.35286236
       33.370483      -119.15082     -0.34446478
       33.369625      -119.15106     -0.35286236
       33.368767      -119.15129     -0.35286236
       33.367909      -119.15152     -0.35286236
       33.367050      -119.15175     -0.34586573
       33.366192      -119.15198     -0.35426331
       33.365334      -119.15221     -0.35426331
       33.364476      -119.15244     -0.35426331
       33.363618      -119.15268     -0.34586573
       33.362759      -119.15291     -0.36266088
       33.361901      -119.15314     -0.34586573
       33.361043      -119.15337     -0.34586573
       33.360185      -119.15360     -0.34912443
       33.359326      -119.15383     -0.35752201
       33.358468      -119.15406     -0.34912443
       33.357610      -119.15430     -0.33886385
       33.356753      -119.15453     -0.35565948
       33.355895      -119.15476     -0.35565948
       33.355036      -119.15499     -0.36405706
       33.354177      -119.15522     -0.33886385
       33.353319      -119.15545     -0.34726191
       33.352460      -119.15568     -0.34726191
       33.351602      -119.15591     -0.35565948
       33.350745      -119.15615     -0.34726191
       33.349886      -119.15638     -0.35565948
       33.349028      -119.15661     -0.34726191
       33.348170      -119.15684     -0.35565948
       33.347312      -119.15707     -0.34726191
       33.346453      -119.15730     -0.34726191
       33.345595      -119.15753     -0.34726191
       33.344738      -119.15777     -0.34726191
       33.343880      -119.15800     -0.34726191
       33.343021      -119.15823     -0.34726191
       33.342163      -119.15846     -0.36405706
       33.341305      -119.15869     -0.34726191
       33.340448      -119.15892     -0.34726191
       33.339590      -119.15915     -0.35285616
       33.338731      -119.15939     -0.35285616
       33.337873      -119.15962     -0.36125374
       33.337015      -119.15985     -0.36125374
       33.336158      -119.16008     -0.34445810
       33.335300      -119.16031     -0.37804890
       33.334442      -119.16054     -0.36125374
       33.333584      -119.16077     -0.35285616
       33.332726      -119.16101     -0.36125374
       33.331868      -119.16124     -0.36965132
       33.331009      -119.16147     -0.34866285
       33.330151      -119.16170     -0.34866285
       33.329293      -119.16193     -0.32346964
       33.328435      -119.16216     -0.34026480
       33.327577      -119.16239     -0.34866285
       33.326719      -119.16263     -0.34866285
       33.325861      -119.16286     -0.34026480
       33.325003      -119.16309     -0.34026480
       33.324146      -119.16332     -0.34866285
       33.323288      -119.16355     -0.34866285
       33.322429      -119.16378     -0.34866285
       33.321571      -119.16401     -0.34305811
       33.320713      -119.16424     -0.32626295
       33.319856      -119.16447     -0.33653498
       33.318997      -119.16470     -0.34493256
       33.318139      -119.16494     -0.33653498
       33.317281      -119.16517     -0.33653498
       33.316423      -119.16540     -0.33653498
       33.315565      -119.16563     -0.34493256
       33.314707      -119.16586     -0.34493256
       33.313848      -119.16609     -0.34493256
       33.312991      -119.16632     -0.34260035
       33.312133      -119.16655     -0.35099792
       33.311276      -119.16679     -0.33420229
       33.310417      -119.16702     -0.35099792
       33.309558      -119.16725     -0.34260035
       33.308700      -119.16748     -0.35099792
       33.307842      -119.16771     -0.34260035
       33.306984      -119.16794     -0.35099792
       33.306126      -119.16817     -0.35099792
       33.305268      -119.16840     -0.34260035
       33.304411      -119.16863     -0.33420229
       33.303553      -119.16886     -0.33139944
       33.302694      -119.16910     -0.33979702
       33.301835      -119.16933     -0.33979702
       33.300977      -119.16956     -0.33139944
       33.300119      -119.16979     -0.33139944
       33.299260      -119.17002     -0.33139944
       33.298402      -119.17025     -0.33139944
       33.297544      -119.17048     -0.34819460
       33.296686      -119.17071     -0.32300138
       33.295828      -119.17095     -0.33979702
       33.294970      -119.17118     -0.31925917
       33.294111      -119.17141     -0.31925917
       33.293253      -119.17164     -0.32765675
       33.292395      -119.17187     -0.31925917
       33.291537      -119.17210     -0.31925917
       33.290679      -119.17233     -0.31925917
       33.289821      -119.17256     -0.31086111
       33.288963      -119.17279     -0.31925917
       33.288105      -119.17302     -0.31086111
       33.287247      -119.17325     -0.31086111
       33.286389      -119.17348     -0.31086111
       33.285531      -119.17371     -0.31039286
       33.284673      -119.17395     -0.31879091
       33.283815      -119.17418     -0.31039286
       33.282957      -119.17441     -0.31879091
       33.282099      -119.17464     -0.32718849
       33.281240      -119.17487     -0.32718849
       33.280381      -119.17510     -0.31879091
       33.279522      -119.17533     -0.29219484
       33.278664      -119.17556     -0.27539968
       33.277806      -119.17579     -0.30059242
       33.276947      -119.17602     -0.33185863
       33.276089      -119.17626     -0.31506300
       33.275231      -119.17649     -0.31506300
       33.274373      -119.17672     -0.31506300
       33.273515      -119.17695     -0.32346106
       33.272657      -119.17718     -0.32346106
       33.271800      -119.17741     -0.31506300
       33.270942      -119.17764     -0.30666542
       33.270084      -119.17787     -0.31506300
       33.269226      -119.17810     -0.31506300
       33.268368      -119.17833     -0.30666542
       33.267510      -119.17856     -0.33326864
       33.266651      -119.17879     -0.33326864
       33.265792      -119.17903     -0.33326864
       33.264934      -119.17926     -0.31647301
       33.264076      -119.17949     -0.32487059
       33.263218      -119.17972     -0.31647301
       33.262360      -119.17995     -0.32487059
       33.261501      -119.18018     -0.32487059
       33.260643      -119.18041     -0.33326864
       33.259786      -119.18064     -0.33326864
       33.258928      -119.18087     -0.30152798
       33.258069      -119.18110     -0.28473282
       33.257211      -119.18133     -0.30152798
       33.256353      -119.18156     -0.30992556
       33.255495      -119.18179     -0.30992556
       33.254636      -119.18203     -0.30992556
       33.253778      -119.18226     -0.31832361
       33.252920      -119.18249     -0.32672119
       33.252062      -119.18272     -0.31832361
       33.251205      -119.18295     -0.31832361
       33.250346      -119.18318     -0.30992556
       33.249488      -119.18341     -0.31364965
       33.248629      -119.18364     -0.31364965
       33.247771      -119.18387     -0.31364965
       33.246913      -119.18410     -0.30525160
       33.246055      -119.18433     -0.29685402
       33.245197      -119.18456     -0.31364965
       33.244338      -119.18479     -0.30525160
       33.243480      -119.18502     -0.30525160
       33.242622      -119.18525     -0.31364965
       33.241764      -119.18548     -0.32204723
       33.240906      -119.18572     -0.31925917
       33.240048      -119.18595     -0.31086111
       33.239190      -119.18618     -0.34353161
       33.238331      -119.18641     -0.32673597
       33.237472      -119.18664     -0.32673597
       33.236614      -119.18687     -0.32673597
       33.235756      -119.18710     -0.32673597
       33.234898      -119.18733     -0.31833839
       33.234040      -119.18756     -0.32673597
       33.233182      -119.18779     -0.32673597
       33.232323      -119.18802     -0.33513403
       33.231465      -119.18825     -0.31693411
       33.230607      -119.18848     -0.32533216
       33.229748      -119.18871     -0.31693411
       33.228890      -119.18894     -0.31693411
       33.228032      -119.18917     -0.33372974
       33.227174      -119.18940     -0.32533216
       33.226316      -119.18964     -0.32533216
       33.225458      -119.18987     -0.32533216
       33.224600      -119.19010     -0.33372974
       33.223741      -119.19033     -0.32533216
       33.222883      -119.19056     -0.31086111
       33.222024      -119.19079     -0.31925917
       33.221165      -119.19102     -0.31925917
       33.220307      -119.19125     -0.30246353
       33.219449      -119.19148     -0.31925917
       33.218591      -119.19171     -0.31925917
       33.217734      -119.19194     -0.31086111
       33.216876      -119.19217     -0.32765675
       33.216018      -119.19240     -0.31086111
       33.215159      -119.19263     -0.31086111
       33.214301      -119.19286     -0.31086111
       33.213443      -119.19309     -0.31177664
       33.212584      -119.19332     -0.30337858
       33.211727      -119.19355     -0.30337858
       33.210869      -119.19379     -0.30337858
       33.210010      -119.19402     -0.30337858
       33.209151      -119.19425     -0.31177664
       33.208294      -119.19448     -0.31177664
       33.207436      -119.19471     -0.29498100
       33.206578      -119.19494     -0.31177664
