       33.974564      -118.98727     -0.46775103       0
       33.969416      -118.98867     -0.47650671       1
       33.955688      -118.99240     -0.44421339       2
       33.933379      -118.99847     -0.43232918       3
       33.911071      -119.00454     -0.44396925       4
       33.889624      -119.01037     -0.41229200       5
       33.867312      -119.01644     -0.41037846       6
       33.845004      -119.02250     -0.41721153       7
       33.822692      -119.02856     -0.37525654       8
       33.800383      -119.03461     -0.38456917       9
       33.778930      -119.04043     -0.38127565      10
       33.756619      -119.04648     -0.37102842      11
       33.734306      -119.05252     -0.35004473      12
       33.711994      -119.05856     -0.37852144      13
       33.690540      -119.06437     -0.36637783      14
       33.668230      -119.07040     -0.37012386      15
       33.645918      -119.07644     -0.34726191      16
       33.623610      -119.08247     -0.37105465      17
       33.601301      -119.08851     -0.37945271      18
       33.579852      -119.09431     -0.34256220      19
       33.557546      -119.10035     -0.34678745      20
       33.535238      -119.10638     -0.34539270      21
       33.512933      -119.11241     -0.33835459      22
       33.490620      -119.11843     -0.34162664      23
       33.469168      -119.12422     -0.33229542      24
       33.446858      -119.13024     -0.32812023      25
       33.424546      -119.13625     -0.33790684      26
       33.402235      -119.14226     -0.32952595      27
       33.380783      -119.14805     -0.35099792      28
       33.358468      -119.15406     -0.34912443      29
       33.345595      -119.15753     -0.34726191      30
       33.334442      -119.16054     -0.36125374      31
       33.313848      -119.16609     -0.34493256      32
       33.291537      -119.17210     -0.31925917      33
       33.270084      -119.17787     -0.31506300      34
       33.247771      -119.18387     -0.31364965      35
       33.225458      -119.18987     -0.32533216      36
       33.210010      -119.19402     -0.30337858      37
